{"normalized": true, "is_image_model": false, "layers": {"0": {"dimension": 4, "activation": null, "regularization": {"regularize": false, "l1_rate": 0, "l2_rate": 0}}, "1": {"dimension": 5, "activation": "relu", "regularization": {"regularize": false, "l1_rate": 0, "l2_rate": 0}}, "2": {"dimension": 4, "activation": "sigmoid", "regularization": {"regularize": false, "l1_rate": 0, "l2_rate": 0}}}, "loss": "binary_crossentropy", "class_list": ["prevalentHyp", "prevalentStroke", "currentSmoker", "diabetes"], "feature_list": ["age", "totChol", "sysBP", "glucose"], "feature_types": ["float", "float", "float", "float"], "feature_min_maxes": [[33.0, 69.0], [113.0, 696.0], [83.5, 295.0], [40.0, 394.0]], "sample_features_mean": [-0.07330246913580238, -0.5730572231751474, -0.5347928158655129, -0.7629727715003154], "sample_dependent_variables_mean": [0.315624999999999, 0.006249999999999998, 0.48506944444444283, 0.029861111111111067], "sample_features_variance": [0.22528518423258528, 0.024532207810597877, 0.044700877497236016, 0.017234773359459638], "sample_features_std": [0.47464216440660356, 0.15662760871122905, 0.2114258203182289, 0.13128127573823936], "weights": {"0": [[0.8763639790853084, -0.35697667380299347, -0.15771672828829222, -0.3171955460727336, 0.07541340779878859], [0.8731325707918974, 0.10146941108189488, 0.11346554581923463, -1.2787290176290467, 0.03135242548339704], [1.3126873472174407, -0.17516674144789818, 0.022924205455383886, 1.1944418928948848, -0.03144351056561191], [0.1006168035022263, 0.1663036179647735, 0.066593677428191, 0.11153570055828735, 1.4325326798631948], [0.4912957615978155, 0.7240801523033648, 0.1260783552301637, 0.02805659934176721, 0.4070550274744353]], "1": [[-2.4227036140499396, -0.23890564246761337, -1.2404015134826478, 1.587965736599449, -0.16623543353658066, 0.36477240948605055], [-3.3724531330509278, -1.0476648545041172, -0.8220769793653587, -0.22110756178126054, 0.11230113715570487, 0.0030800656083047966], [0.20757963745366598, -0.21011033160876239, 0.2673847971225415, 0.06618729870548729, 0.2920792694197286, -0.8710939274371384], [-3.1610013803533117, -0.9945316054979202, -0.4803616100857888, -0.6293890569384423, 1.6597559508528068, -0.3452468111244739]]}}