{"feature_list": ["age", "totChol", "sysBP", "glucose"], "feature_types": ["float", "float", "float", "float"], "class_list": ["prevalentHyp", "prevalentStroke", "currentSmoker", "diabetes"], "feature_min_maxes": [[-2.058176622367221, 2.3652802923019043], [-2.9256065341453854, 8.149699434891502], [-2.209849202441501, 7.379238175901189], [-1.779356448814517, 13.314157875966021]], "sample_features_mean": [49.680902777777945, 237.22881944444376, 132.24114583333338, 81.73263888888897], "sample_dependent_variables_mean": [0.31006944444444345, 0.0069444444444444415, 0.494791666666665, 0.026388888888888858], "sample_features_variance": [73.7978297405474, 1981.4465999951817, 486.4813452148431, 550.0799069251541], "sample_features_std": [8.590566322457875, 44.5134429132951, 22.05632211441525, 23.45378235861231], "normalized": true, "loss": "binary_crossentropy", "layers": {"0": {"dimension": 4, "activation": null, "regularization": {"regularize": false, "l1_rate": 0, "l2_rate": 0}}, "1": {"dimension": 50, "activation": "relu", "regularization": {"regularize": false, "l1_rate": 0, "l2_rate": 0}}, "2": {"dimension": 4, "activation": "sigmoid", "regularization": {"regularize": false, "l1_rate": 0, "l2_rate": 0}}}, "weights": {"0": [[-0.038638160935500016, -0.4352857347554507, -0.43752479674772204, -1.3400499940777217, 0.6273621705820517], [-0.09896940231436387, -0.37708090447588766, -0.09977498392012135, -0.866810434146552, 0.4622335057670424], [0.20311815574114128, 0.033176587739891246, -0.4633816251755657, 0.07602301060788148, 0.6967770683011405], [-0.048350890556784876, 0.1286413185434033, 0.09188366957687674, 1.4100134971021883, 0.2410712091374409], [-0.10947283296670571, 0.8919934841742365, 1.3808254609626258, -0.016420027581947313, -0.336799740390123], [0.054011611958225056, -1.066794538957738, 1.1230737634195072, 0.3019639085723887, -0.8725014907929514], [-0.18158466676516147, 1.2037426855717248, 1.1971640181220613, -1.2521170474072447, -0.41008010601949824], [-0.09562953005482283, -0.17149023662778404, 0.0176952266125919, 0.1958232683424615, -0.6444037783102207], [0.08589045471128202, 0.26512393817257346, 0.6331875277880348, 0.07006743007738415, -0.30865416860510647], [0.07682081158877745, 0.018300712760571432, 0.5279464536512422, 0.6042146360964401, 0.4532990783937698], [-0.6728733757002543, -0.6707705985686596, -0.37128306673782624, -0.6603428380216756, -1.326364324563002], [-0.2140094820776993, -0.04531548404078202, 0.47415186917099356, -2.2640388076175055, 0.39668712989812754], [-0.018978831234772228, -0.40353146218456504, 0.2767413907115765, 0.12940234362272854, 0.20243917180598653], [0.10407501392729476, 1.0026002631398236, -0.0903595845741054, 0.48116598488432594, -0.5461016127892628], [-0.23974600490644693, 0.7781005348430289, 0.19021213447617863, -1.0106832960562624, -0.025579186106485255], [0.5632739470958799, -0.5779609459736512, 0.3038940896259928, 1.738688693315512, -1.073466527684912], [-0.9639898107147341, 0.06426913930060732, 0.19487807532228074, -2.083795345007794, -0.3196988324712609], [0.005244423841561631, 0.3689223640821001, 0.8613056737347216, 0.1902853044870143, -0.35900401299861767], [-0.6117311044001473, -0.31471910409995457, -0.405766035484713, -1.1389539250191842, -0.2335120183070411], [0.010637592992961742, 0.10919405259600079, 0.8284488825696672, 0.7502853308829174, 0.8836582389150498], [0.009826789938312855, -0.4137803277726565, 1.1684088396114094, -0.24890410711774158, -0.5216360161167821], [0.05476696296252859, -0.24263856024079677, 0.18712532961340553, 0.5996042545690051, 0.7806536386646055], [-0.05584467352245914, -1.2616087640196654, -0.21554426942254692, 0.011280490416338844, 0.2211379735974859], [-0.21735652107738299, -0.9594442526163494, 0.09032288860047583, -0.4420028069493983, -0.1512453033811339], [-0.033921133078057865, -0.2008274036579253, -0.8847361787063729, 1.1168221233963118, -0.4292547714916182], [-0.007967100891030858, -0.4879833342237916, 0.44484957357783084, 0.7034998460436942, 0.03137925956729154], [-0.4406508722515083, 0.022256005548757896, -0.07495105493763136, -0.49545588593425544, -0.8615749660942409], [0.17384092712772006, 0.5907444594441645, -0.9953914093640184, 1.0820937480409347, -0.013172879826180468], [0.11985378389104098, -0.0034768492860906483, -0.8149672096998375, 1.057557917048056, 0.3696192881530159], [0.013836183222637067, 0.24789158778967166, -0.028521156411373108, 0.3145267483509615, 0.2622169542717738], [0.07110284871417186, -0.5594358678835634, -0.06051332541493529, 1.0964011736257584, -0.209585836119196], [0.040553956084588616, -0.27441425539533404, -0.15701156825494053, 0.5507273220501839, -0.6577085489870168], [0.7088845024677612, 0.8711061405862158, -0.338000919945863, 1.3704527931976451, 0.3222282657032775], [-0.515936219973595, 0.13171455725760284, -0.4311029692496519, -2.018518306734086, 0.7093125169368075], [-0.022167622802112392, -0.16119643330490446, 0.8348399354734134, -0.6168023640906974, 0.5201219520319219], [-0.2472810428347555, -0.09768868772225331, 0.373787523396769, 0.16109645669382028, -1.4101271648363563], [0.04593491856483688, -0.9453472622433965, 0.3738771028483292, 0.6931589638120574, 0.7766045599655078], [0.0927667745600501, -1.0059341634041392, -0.23276073634496483, 0.8173014981545429, -0.06735402122980554], [-0.20514830406347667, -1.2548931317993657, -0.029162636880737343, 0.3220616879016257, 0.13716408521932225], [-1.2612120949670609, 0.13513001560998292, 0.0670068859491601, -1.5916841642564434, -0.8943639836157636], [-0.08924776369526381, -0.10831430159958942, 0.31743640555079583, 0.07677129305318121, -0.9604511666555761], [0.06461376479661873, -0.4621112237299853, 0.848156574995635, 1.3417478429173313, -0.03903772801095411], [-0.040730866216011144, -0.3782685205490417, -0.29776474265890773, 0.9350108763766114, -0.747785946406554], [0.6591666680071775, 0.11004848494608407, -0.8263759445174516, 0.06602157873820202, 1.3012980595856116], [-0.04892485688691636, 0.5359801309940675, -0.5113898249750379, 0.49914662182929487, 0.48333114394788035], [0.272119694662908, 0.4196877097601564, 0.2703169946459021, -0.06331560937025035, 0.14556872543273955], [0.2691583212196629, 0.35733810525199017, -0.3438095066327841, 1.842125978113979, -1.2898091946209727], [-0.7837030622761137, 0.4279860039688856, -0.731092010282001, -0.46389600082868254, -0.9200390448265467], [-0.3896562157837726, 0.23060845050032314, -1.0596577288083433, 0.20910791337743473, -0.22452685896489197], [-0.5530744797879383, -0.2817680244719233, -0.18378883480839572, -0.5214776890926084, -1.390762045884983]], "1": [[0.8839314299008542, -0.6123127395466251, -0.3998251820392863, 0.37753530510843575, 0.3091127154665647, 0.3638812334728662, 0.6050043872677034, -0.4881751254447387, 0.07921198398871497, 0.12329808264179774, 0.19940525183368202, -0.46862683135950756, -1.2805821613549098, -0.1736563107129993, 0.2643821057462518, -0.24709383284476655, 0.6952625968470937, -1.2984432175892464, 0.43005172475827264, -0.7586021144177842, -0.2900072217067312, 0.49773282921144757, 0.13839924197907297, -0.33340534263334815, -0.3671218515369095, 0.533491007846343, -0.08212268268235723, -0.44194477611792854, 0.4283071603349424, -0.14495348095521246, -0.2525204418239423, 0.2238255510553595, 0.1787183704967185, 0.581743587134431, -1.2429133996536383, -0.21624946847669008, -0.0034903799865739346, 0.36278960233293994, 0.19849074227361732, 0.0820814701860143, -1.094327713641105, 0.12586362588202657, 0.24847191139658392, 0.2668783362669285, 0.31944685626244035, -0.14519110081940634, 0.13769554363830006, 0.9199214304004507, -0.47354059760844075, 0.03176169384248396, -0.31273283740722135], [-1.0805037324025737, -0.7800837702625054, 0.07158424023694296, -0.1416758285810707, -0.010579882193805493, -0.044293132762618766, -0.2850203334729677, -0.6154151701169133, -0.15783617684036214, -0.14019755190261776, 0.051225342693114295, -0.9429572080915983, -0.6429857384299409, 0.03450148505880059, -0.3646661529782989, 0.015156104702722488, -0.452656827546798, -0.06900959099397343, -0.16752613629274365, -0.5939699791591033, -0.27740617982611343, 0.1400703985540301, -0.006057977523904345, -0.5190919149516935, -0.3769308674638743, -0.2426304551584277, 0.21641059201783966, -0.39154944395272856, 0.3480210548307076, -0.2915486356244208, 0.04191646019016678, -0.10404873730898423, -0.28282366413854054, -0.11674538329270048, -0.2710650788531048, 0.27417434541251356, -0.49386410954080945, -0.09969455680713189, -0.32924519232745914, -0.029883922993198905, -0.611465606867034, -0.6822194188315381, -0.18227884240539005, -0.15270914399405974, -0.10226137899239221, -0.4372142856753436, -0.21316500842460637, 0.10090082755242699, -0.36674529335074046, -0.21141587672606463, -0.6000782062206088], [-0.3024431556646408, 0.03423246813205012, 0.19152723753678294, -0.014009866144921734, -0.022793627803550508, -0.5256981482832354, 0.699285288479886, -0.18596847418128035, -0.0005852065336851581, -0.4342454458792279, -0.008267059716608566, 0.06859834554283192, -0.21132875893857692, -0.027883422648587692, -0.4367301420011179, 0.27793981617699715, -0.3281989385478051, 0.16850645460404964, -0.12744746107858293, 0.05153539568489146, -0.23495635870795264, 0.4461149699136187, -0.06809902182983009, 0.014255416828227518, 0.42502473006783725, -0.07508333358897, -0.03912895406218693, -0.08674882998567754, 0.1092815108102009, -0.23862897172094158, -0.055558679585690114, 0.20144115448360214, -0.10429447909592385, -0.28102246632287964, -0.06472134503569703, 0.02997416447977887, -0.06423919701175643, 0.22606382935816535, -0.0703449561993205, -0.44289642876312896, 0.14042369728478574, 0.14150448705734434, 0.07847630119664764, -0.23297959539552848, 0.07128146714568995, 0.05605595678169821, -0.21802899211582905, 0.4223668439260271, 0.08624113630916205, 0.11117462232836299, 0.2448614480903571], [0.40726715949101494, 0.5136238878494898, 0.2685537989759872, 0.18276486994082622, -0.07066148511875982, -0.050687238012370926, -0.3632285110938579, -0.0950048380982738, -0.426513542194141, -0.3300802108673555, 0.31612966233038725, -1.538281012225341, 0.4894145371689306, -0.17514413673541393, -0.527654366710351, -0.06801967009707074, 0.04778537091290511, -0.37519122478459516, 0.1670589091623906, -0.4343432683053196, -0.07574767699184558, -0.07487278622081218, 0.30388644819848404, -0.0929866243256886, -0.3588515337879984, -0.2225347880722048, 0.1456456491914625, -0.9014067446519052, 0.33952913059795076, 0.2469724195556747, 0.045202302703765226, 0.3496891941229974, -0.46544594216472823, 0.47344487252186285, 0.6034031956004091, 0.1613937628100854, -1.1073651600304164, -0.09964104344063797, -0.2562806881831987, -0.17328913028806775, -1.229936940226918, -0.6779390393220553, 0.1355102134915057, -0.5042559395784693, 1.4389461812974798, 0.17862185350928197, 0.1945220060772206, -0.7592360722623552, -1.0390157012478898, -0.25403967472283073, -1.5114549100254178]]}}